<?xml version="1.0"?>
<opencv_storage>
<cascade>
  <stageType>BOOST</stageType>
  <featureType>HAAR</featureType>
  <height>30</height>
  <width>20</width>
  <stageParams>
    <boostType>GAB</boostType>
    <minHitRate>9.9500000476837158e-01</minHitRate>
    <maxFalseAlarm>5.0000000000000000e-01</maxFalseAlarm>
    <weightTrimRate>9.4999998807907104e-01</weightTrimRate>
    <maxDepth>1</maxDepth>
    <maxWeakCount>100</maxWeakCount></stageParams>
  <featureParams>
    <maxCatCount>0</maxCatCount>
    <featSize>1</featSize>
    <mode>BASIC</mode></featureParams>
  <stageNum>9</stageNum>
  <stages>
    <!-- stage 0 -->
    <_>
      <maxWeakCount>7</maxWeakCount>
      <stageThreshold>-1.5826013088226318e+00</stageThreshold>
      <weakClassifiers>
        <_>
          <internalNodes>
            0 -1 53 -1.7461721599102020e-01</internalNodes>
          <leafValues>
            3.9130434393882751e-01 -8.5261195898056030e-01</leafValues></_>
        <_>
          <internalNodes>
            0 -1 41 -1.6830551624298096e-01</internalNodes>
          <leafValues>
            4.4451481103897095e-01 -5.1514279842376709e-01</leafValues></_>
        <_>
          <internalNodes>
            0 -1 74 -3.4928156528621912e-03</internalNodes>
          <leafValues>
            -6.8987083435058594e-01 1.6097520291805267e-01</leafValues></_>
        <_>
          <internalNodes>
            0 -1 22 -4.0780956624075770e-05</internalNodes>
          <leafValues>
            -5.6984698772430420e-01 2.1744847297668457e-01</leafValues></_>
        <_>
          <internalNodes>
            0 -1 72 9.0042781084775925e-03</internalNodes>
          <leafValues>
            1.7485485970973969e-01 -8.9362770318984985e-01</leafValues></_>
        <_>
          <internalNodes>
            0 -1 11 -2.5863807648420334e-02</internalNodes>
          <leafValues>
            4.2951652407646179e-01 -3.0811527371406555e-01</leafValues></_>
        <_>
          <internalNodes>
            0 -1 65 -1.2685365509241819e-03</internalNodes>
          <leafValues>
            6.0847276449203491e-01 -2.6479130983352661e-01</leafValues></_></weakClassifiers></_>
    <!-- stage 1 -->
    <_>
      <maxWeakCount>10</maxWeakCount>
      <stageThreshold>-1.8182674646377563e+00</stageThreshold>
      <weakClassifiers>
        <_>
          <internalNodes>
            0 -1 48 -2.4992945790290833e-01</internalNodes>
          <leafValues>
            -4.7619048506021500e-02 -8.5754984617233276e-01</leafValues></_>
        <_>
          <internalNodes>
            0 -1 54 -1.5655759721994400e-02</internalNodes>
          <leafValues>
            1.2631976604461670e-01 -5.5471599102020264e-01</leafValues></_>
        <_>
          <internalNodes>
            0 -1 10 -3.4069749526679516e-03</internalNodes>
          <leafValues>
            -7.5969845056533813e-01 1.1263160407543182e-01</leafValues></_>
        <_>
          <internalNodes>
            0 -1 13 -3.7070335820317268e-03</internalNodes>
          <leafValues>
            -9.7063791751861572e-01 8.4258168935775757e-02</leafValues></_>
        <_>
          <internalNodes>
            0 -1 20 -5.2096109837293625e-02</internalNodes>
          <leafValues>
            5.9733664989471436e-01 -1.9402061402797699e-01</leafValues></_>
        <_>
          <internalNodes>
            0 -1 57 2.5678456295281649e-03</internalNodes>
          <leafValues>
            -1.9531382620334625e-01 5.5823671817779541e-01</leafValues></_>
        <_>
          <internalNodes>
            0 -1 34 -3.1164246611297131e-03</internalNodes>
          <leafValues>
            -7.7023649215698242e-01 1.8457897007465363e-01</leafValues></_>
        <_>
          <internalNodes>
            0 -1 4 -1.1883614584803581e-02</internalNodes>
          <leafValues>
            6.4712125062942505e-01 -1.9752211868762970e-01</leafValues></_>
        <_>
          <internalNodes>
            0 -1 27 -1.3305185362696648e-02</internalNodes>
          <leafValues>
            5.4662972688674927e-01 -2.1061152219772339e-01</leafValues></_>
        <_>
          <internalNodes>
            0 -1 36 9.9466298706829548e-04</internalNodes>
          <leafValues>
            1.8309904634952545e-01 -7.4724346399307251e-01</leafValues></_></weakClassifiers></_>
    <!-- stage 2 -->
    <_>
      <maxWeakCount>7</maxWeakCount>
      <stageThreshold>-1.6198467016220093e+00</stageThreshold>
      <weakClassifiers>
        <_>
          <internalNodes>
            0 -1 55 -8.3393536508083344e-02</internalNodes>
          <leafValues>
            9.0909093618392944e-02 -8.5499060153961182e-01</leafValues></_>
        <_>
          <internalNodes>
            0 -1 47 -8.1035923212766647e-03</internalNodes>
          <leafValues>
            1.6879290342330933e-01 -5.6366479396820068e-01</leafValues></_>
        <_>
          <internalNodes>
            0 -1 44 -1.2843787670135498e-02</internalNodes>
          <leafValues>
            5.1903837919235229e-01 -2.3577661812305450e-01</leafValues></_>
        <_>
          <internalNodes>
            0 -1 25 -3.5850168205797672e-03</internalNodes>
          <leafValues>
            -7.4775767326354980e-01 1.6386434435844421e-01</leafValues></_>
        <_>
          <internalNodes>
            0 -1 0 -2.1776524372398853e-03</internalNodes>
          <leafValues>
            -5.2424776554107666e-01 2.3590700328350067e-01</leafValues></_>
        <_>
          <internalNodes>
            0 -1 26 4.3396856635808945e-03</internalNodes>
          <leafValues>
            -2.9276147484779358e-01 3.8636597990989685e-01</leafValues></_>
        <_>
          <internalNodes>
            0 -1 75 -3.2867919653654099e-03</internalNodes>
          <leafValues>
            -9.0246981382369995e-01 1.0673975199460983e-01</leafValues></_></weakClassifiers></_>
    <!-- stage 3 -->
    <_>
      <maxWeakCount>7</maxWeakCount>
      <stageThreshold>-1.5986580848693848e+00</stageThreshold>
      <weakClassifiers>
        <_>
          <internalNodes>
            0 -1 42 -2.6457005739212036e-01</internalNodes>
          <leafValues>
            1. -8.3992642164230347e-01</leafValues></_>
        <_>
          <internalNodes>
            0 -1 59 -7.9465657472610474e-02</internalNodes>
          <leafValues>
            4.1063991189002991e-01 -5.0061416625976563e-01</leafValues></_>
        <_>
          <internalNodes>
            0 -1 12 -1.2994259595870972e-03</internalNodes>
          <leafValues>
            -5.7801032066345215e-01 1.7078599333763123e-01</leafValues></_>
        <_>
          <internalNodes>
            0 -1 6 -1.3461089693009853e-03</internalNodes>
          <leafValues>
            -6.4721691608428955e-01 1.4880560338497162e-01</leafValues></_>
        <_>
          <internalNodes>
            0 -1 64 8.6135586025193334e-04</internalNodes>
          <leafValues>
            -2.8796768188476563e-01 3.4983026981353760e-01</leafValues></_>
        <_>
          <internalNodes>
            0 -1 62 -6.0375679284334183e-02</internalNodes>
          <leafValues>
            4.8226341605186462e-01 -2.2962719202041626e-01</leafValues></_>
        <_>
          <internalNodes>
            0 -1 14 7.5391456484794617e-03</internalNodes>
          <leafValues>
            1.9755110144615173e-01 -6.6100645065307617e-01</leafValues></_></weakClassifiers></_>
    <!-- stage 4 -->
    <_>
      <maxWeakCount>7</maxWeakCount>
      <stageThreshold>-1.4741250276565552e+00</stageThreshold>
      <weakClassifiers>
        <_>
          <internalNodes>
            0 -1 52 -3.4357797354459763e-02</internalNodes>
          <leafValues>
            2.5000000000000000e-01 -8.4244668483734131e-01</leafValues></_>
        <_>
          <internalNodes>
            0 -1 67 1.0842781513929367e-02</internalNodes>
          <leafValues>
            -5.6314051151275635e-01 1.1982360482215881e-01</leafValues></_>
        <_>
          <internalNodes>
            0 -1 46 2.3539848625659943e-03</internalNodes>
          <leafValues>
            -2.5525146722793579e-01 4.3547463417053223e-01</leafValues></_>
        <_>
          <internalNodes>
            0 -1 33 -4.9558457249077037e-05</internalNodes>
          <leafValues>
            -5.2913141250610352e-01 2.2503820061683655e-01</leafValues></_>
        <_>
          <internalNodes>
            0 -1 63 -1.0568075231276453e-04</internalNodes>
          <leafValues>
            -5.0574904680252075e-01 1.8936093151569366e-01</leafValues></_>
        <_>
          <internalNodes>
            0 -1 3 9.4844847917556763e-03</internalNodes>
          <leafValues>
            1.1815503239631653e-01 -1.</leafValues></_>
        <_>
          <internalNodes>
            0 -1 66 -5.5368631146848202e-03</internalNodes>
          <leafValues>
            3.7463080883026123e-01 -2.7463498711585999e-01</leafValues></_></weakClassifiers></_>
    <!-- stage 5 -->
    <_>
      <maxWeakCount>11</maxWeakCount>
      <stageThreshold>-1.6728992462158203e+00</stageThreshold>
      <weakClassifiers>
        <_>
          <internalNodes>
            0 -1 40 -4.0458187460899353e-02</internalNodes>
          <leafValues>
            5.0000000000000000e-01 -8.4118187427520752e-01</leafValues></_>
        <_>
          <internalNodes>
            0 -1 7 -3.9080143906176090e-03</internalNodes>
          <leafValues>
            1.8139421939849854e-02 -5.4363405704498291e-01</leafValues></_>
        <_>
          <internalNodes>
            0 -1 18 -2.4559960002079606e-04</internalNodes>
          <leafValues>
            -5.7392686605453491e-01 1.6584208607673645e-01</leafValues></_>
        <_>
          <internalNodes>
            0 -1 28 -3.0078557319939137e-03</internalNodes>
          <leafValues>
            3.0788391828536987e-01 -3.0564588308334351e-01</leafValues></_>
        <_>
          <internalNodes>
            0 -1 60 9.2798027253593318e-06</internalNodes>
          <leafValues>
            2.6135283708572388e-01 -3.9668008685112000e-01</leafValues></_>
        <_>
          <internalNodes>
            0 -1 24 2.6447270065546036e-03</internalNodes>
          <leafValues>
            1.1573270708322525e-01 -7.9094737768173218e-01</leafValues></_>
        <_>
          <internalNodes>
            0 -1 37 2.0499906968325377e-03</internalNodes>
          <leafValues>
            -2.6617908477783203e-01 3.5957884788513184e-01</leafValues></_>
        <_>
          <internalNodes>
            0 -1 17 -6.6136897657997906e-05</internalNodes>
          <leafValues>
            -4.4575977325439453e-01 2.4098140001296997e-01</leafValues></_>
        <_>
          <internalNodes>
            0 -1 5 -5.0766917411237955e-05</internalNodes>
          <leafValues>
            -4.6088269352912903e-01 2.2908908128738403e-01</leafValues></_>
        <_>
          <internalNodes>
            0 -1 38 7.8182099387049675e-03</internalNodes>
          <leafValues>
            -3.0717763304710388e-01 3.5451242327690125e-01</leafValues></_>
        <_>
          <internalNodes>
            0 -1 56 2.7505164965987206e-02</internalNodes>
          <leafValues>
            -2.1903219819068909e-01 5.0747019052505493e-01</leafValues></_></weakClassifiers></_>
    <!-- stage 6 -->
    <_>
      <maxWeakCount>10</maxWeakCount>
      <stageThreshold>-1.6975575685501099e+00</stageThreshold>
      <weakClassifiers>
        <_>
          <internalNodes>
            0 -1 70 1.6392029821872711e-02</internalNodes>
          <leafValues>
            -8.5714286565780640e-01 -1.1111111193895340e-01</leafValues></_>
        <_>
          <internalNodes>
            0 -1 35 -1.4213334769010544e-02</internalNodes>
          <leafValues>
            1.7149035632610321e-01 -5.2683758735656738e-01</leafValues></_>
        <_>
          <internalNodes>
            0 -1 71 -1.8360784451942891e-04</internalNodes>
          <leafValues>
            -4.7773265838623047e-01 2.0659527182579041e-01</leafValues></_>
        <_>
          <internalNodes>
            0 -1 16 3.0636666342616081e-03</internalNodes>
          <leafValues>
            -2.3454517126083374e-01 4.1775068640708923e-01</leafValues></_>
        <_>
          <internalNodes>
            0 -1 73 -4.4500172953121364e-04</internalNodes>
          <leafValues>
            -4.5255059003829956e-01 2.5059342384338379e-01</leafValues></_>
        <_>
          <internalNodes>
            0 -1 61 1.1976755922660232e-03</internalNodes>
          <leafValues>
            1.8031701445579529e-01 -6.6189694404602051e-01</leafValues></_>
        <_>
          <internalNodes>
            0 -1 45 2.7239159680902958e-03</internalNodes>
          <leafValues>
            -1.6360720992088318e-01 5.9065765142440796e-01</leafValues></_>
        <_>
          <internalNodes>
            0 -1 68 1.0346536328142975e-05</internalNodes>
          <leafValues>
            2.2041822969913483e-01 -4.8839819431304932e-01</leafValues></_>
        <_>
          <internalNodes>
            0 -1 15 -6.3317384046968073e-05</internalNodes>
          <leafValues>
            -3.8317349553108215e-01 2.5513365864753723e-01</leafValues></_>
        <_>
          <internalNodes>
            0 -1 58 -2.8026415966451168e-03</internalNodes>
          <leafValues>
            4.9734884500503540e-01 -1.9544103741645813e-01</leafValues></_></weakClassifiers></_>
    <!-- stage 7 -->
    <_>
      <maxWeakCount>10</maxWeakCount>
      <stageThreshold>-1.6929912567138672e+00</stageThreshold>
      <weakClassifiers>
        <_>
          <internalNodes>
            0 -1 43 2.0413474738597870e-01</internalNodes>
          <leafValues>
            -8.6001914739608765e-01 -1.5384615957736969e-01</leafValues></_>
        <_>
          <internalNodes>
            0 -1 3 -3.6457851529121399e-03</internalNodes>
          <leafValues>
            -8.6597609519958496e-01 -2.1177361905574799e-01</leafValues></_>
        <_>
          <internalNodes>
            0 -1 73 3.0801030807197094e-03</internalNodes>
          <leafValues>
            5.9984158724546432e-02 -7.9442435503005981e-01</leafValues></_>
        <_>
          <internalNodes>
            0 -1 19 6.6347001120448112e-03</internalNodes>
          <leafValues>
            9.0211629867553711e-02 -1.</leafValues></_>
        <_>
          <internalNodes>
            0 -1 31 8.1077642971649766e-04</internalNodes>
          <leafValues>
            -3.3711245656013489e-01 3.0993062257766724e-01</leafValues></_>
        <_>
          <internalNodes>
            0 -1 29 -1.0372459888458252e-02</internalNodes>
          <leafValues>
            6.8959540128707886e-01 -1.5342925488948822e-01</leafValues></_>
        <_>
          <internalNodes>
            0 -1 51 4.6765469014644623e-03</internalNodes>
          <leafValues>
            1.4862470328807831e-01 -8.0286371707916260e-01</leafValues></_>
        <_>
          <internalNodes>
            0 -1 8 -1.9079321064054966e-03</internalNodes>
          <leafValues>
            3.8207563757896423e-01 -2.8205481171607971e-01</leafValues></_>
        <_>
          <internalNodes>
            0 -1 39 4.6333931386470795e-03</internalNodes>
          <leafValues>
            -1.8646849691867828e-01 5.4227113723754883e-01</leafValues></_>
        <_>
          <internalNodes>
            0 -1 9 -2.5312420912086964e-03</internalNodes>
          <leafValues>
            -6.0799700021743774e-01 1.7020700871944427e-01</leafValues></_></weakClassifiers></_>
    <!-- stage 8 -->
    <_>
      <maxWeakCount>9</maxWeakCount>
      <stageThreshold>-2.0026941299438477e+00</stageThreshold>
      <weakClassifiers>
        <_>
          <internalNodes>
            0 -1 23 -6.5173104405403137e-02</internalNodes>
          <leafValues>
            1. -8.4162062406539917e-01</leafValues></_>
        <_>
          <internalNodes>
            0 -1 1 -8.1907548010349274e-03</internalNodes>
          <leafValues>
            2.8996288776397705e-01 -4.8675391077995300e-01</leafValues></_>
        <_>
          <internalNodes>
            0 -1 21 -7.9131294041872025e-03</internalNodes>
          <leafValues>
            -8.0219662189483643e-01 1.1724591255187988e-01</leafValues></_>
        <_>
          <internalNodes>
            0 -1 2 1.2673333287239075e-02</internalNodes>
          <leafValues>
            1.7642849683761597e-01 -6.6536509990692139e-01</leafValues></_>
        <_>
          <internalNodes>
            0 -1 30 2.3184932768344879e-02</internalNodes>
          <leafValues>
            -2.7772718667984009e-01 4.6823906898498535e-01</leafValues></_>
        <_>
          <internalNodes>
            0 -1 49 -6.1264741816557944e-05</internalNodes>
          <leafValues>
            -4.8689466714859009e-01 2.9171648621559143e-01</leafValues></_>
        <_>
          <internalNodes>
            0 -1 32 -8.2557857967913151e-04</internalNodes>
          <leafValues>
            5.3926926851272583e-01 -2.3945721983909607e-01</leafValues></_>
        <_>
          <internalNodes>
            0 -1 69 -3.7365284515544772e-04</internalNodes>
          <leafValues>
            -5.2719140052795410e-01 2.1358580887317657e-01</leafValues></_>
        <_>
          <internalNodes>
            0 -1 50 -3.6399476230144501e-03</internalNodes>
          <leafValues>
            6.3659626245498657e-01 -1.8268971145153046e-01</leafValues></_></weakClassifiers></_></stages>
  <features>
    <_>
      <rects>
        <_>
          0 0 1 30 -1.</_>
        <_>
          0 10 1 10 3.</_></rects>
      <tilted>0</tilted></_>
    <_>
      <rects>
        <_>
          0 0 2 11 -1.</_>
        <_>
          1 0 1 11 2.</_></rects>
      <tilted>0</tilted></_>
    <_>
      <rects>
        <_>
          0 0 20 1 -1.</_>
        <_>
          10 0 10 1 2.</_></rects>
      <tilted>0</tilted></_>
    <_>
      <rects>
        <_>
          0 3 1 12 -1.</_>
        <_>
          0 7 1 4 3.</_></rects>
      <tilted>0</tilted></_>
    <_>
      <rects>
        <_>
          0 5 3 13 -1.</_>
        <_>
          1 5 1 13 3.</_></rects>
      <tilted>0</tilted></_>
    <_>
      <rects>
        <_>
          0 5 2 3 -1.</_>
        <_>
          0 6 2 1 3.</_></rects>
      <tilted>0</tilted></_>
    <_>
      <rects>
        <_>
          0 6 1 9 -1.</_>
        <_>
          0 9 1 3 3.</_></rects>
      <tilted>0</tilted></_>
    <_>
      <rects>
        <_>
          0 8 8 1 -1.</_>
        <_>
          4 8 4 1 2.</_></rects>
      <tilted>0</tilted></_>
    <_>
      <rects>
        <_>
          0 8 19 2 -1.</_>
        <_>
          0 9 19 1 2.</_></rects>
      <tilted>0</tilted></_>
    <_>
      <rects>
        <_>
          0 9 1 10 -1.</_>
        <_>
          0 14 1 5 2.</_></rects>
      <tilted>0</tilted></_>
    <_>
      <rects>
        <_>
          0 12 1 10 -1.</_>
        <_>
          0 17 1 5 2.</_></rects>
      <tilted>0</tilted></_>
    <_>
      <rects>
        <_>
          0 13 6 12 -1.</_>
        <_>
          3 13 3 12 2.</_></rects>
      <tilted>0</tilted></_>
    <_>
      <rects>
        <_>
          0 18 1 9 -1.</_>
        <_>
          0 21 1 3 3.</_></rects>
      <tilted>0</tilted></_>
    <_>
      <rects>
        <_>
          0 20 1 6 -1.</_>
        <_>
          0 23 1 3 2.</_></rects>
      <tilted>0</tilted></_>
    <_>
      <rects>
        <_>
          0 23 20 4 -1.</_>
        <_>
          0 23 10 2 2.</_>
        <_>
          10 25 10 2 2.</_></rects>
      <tilted>0</tilted></_>
    <_>
      <rects>
        <_>
          0 25 8 4 -1.</_>
        <_>
          0 27 8 2 2.</_></rects>
      <tilted>0</tilted></_>
    <_>
      <rects>
        <_>
          0 26 4 4 -1.</_>
        <_>
          2 26 2 4 2.</_></rects>
      <tilted>0</tilted></_>
    <_>
      <rects>
        <_>
          0 27 2 3 -1.</_>
        <_>
          0 28 2 1 3.</_></rects>
      <tilted>0</tilted></_>
    <_>
      <rects>
        <_>
          1 0 6 1 -1.</_>
        <_>
          3 0 2 1 3.</_></rects>
      <tilted>0</tilted></_>
    <_>
      <rects>
        <_>
          1 0 6 2 -1.</_>
        <_>
          3 0 2 2 3.</_></rects>
      <tilted>0</tilted></_>
    <_>
      <rects>
        <_>
          1 7 8 10 -1.</_>
        <_>
          5 7 4 10 2.</_></rects>
      <tilted>0</tilted></_>
    <_>
      <rects>
        <_>
          2 0 18 1 -1.</_>
        <_>
          11 0 9 1 2.</_></rects>
      <tilted>0</tilted></_>
    <_>
      <rects>
        <_>
          2 2 4 1 -1.</_>
        <_>
          4 2 2 1 2.</_></rects>
      <tilted>0</tilted></_>
    <_>
      <rects>
        <_>
          2 16 4 12 -1.</_>
        <_>
          2 20 4 4 3.</_></rects>
      <tilted>0</tilted></_>
    <_>
      <rects>
        <_>
          3 29 6 1 -1.</_>
        <_>
          5 29 2 1 3.</_></rects>
      <tilted>0</tilted></_>
    <_>
      <rects>
        <_>
          4 0 12 1 -1.</_>
        <_>
          10 0 6 1 2.</_></rects>
      <tilted>0</tilted></_>
    <_>
      <rects>
        <_>
          4 6 4 10 -1.</_>
        <_>
          4 6 2 5 2.</_>
        <_>
          6 11 2 5 2.</_></rects>
      <tilted>0</tilted></_>
    <_>
      <rects>
        <_>
          4 8 10 6 -1.</_>
        <_>
          4 8 5 3 2.</_>
        <_>
          9 11 5 3 2.</_></rects>
      <tilted>0</tilted></_>
    <_>
      <rects>
        <_>
          4 9 8 2 -1.</_>
        <_>
          8 9 4 2 2.</_></rects>
      <tilted>0</tilted></_>
    <_>
      <rects>
        <_>
          4 10 4 4 -1.</_>
        <_>
          4 12 4 2 2.</_></rects>
      <tilted>0</tilted></_>
    <_>
      <rects>
        <_>
          4 11 8 12 -1.</_>
        <_>
          4 11 4 6 2.</_>
        <_>
          8 17 4 6 2.</_></rects>
      <tilted>0</tilted></_>
    <_>
      <rects>
        <_>
          4 12 7 3 -1.</_>
        <_>
          4 13 7 1 3.</_></rects>
      <tilted>0</tilted></_>
    <_>
      <rects>
        <_>
          4 16 2 4 -1.</_>
        <_>
          4 16 1 2 2.</_>
        <_>
          5 18 1 2 2.</_></rects>
      <tilted>0</tilted></_>
    <_>
      <rects>
        <_>
          4 29 2 1 -1.</_>
        <_>
          5 29 1 1 2.</_></rects>
      <tilted>0</tilted></_>
    <_>
      <rects>
        <_>
          5 0 6 2 -1.</_>
        <_>
          7 0 2 2 3.</_></rects>
      <tilted>0</tilted></_>
    <_>
      <rects>
        <_>
          5 0 4 6 -1.</_>
        <_>
          5 3 4 3 2.</_></rects>
      <tilted>0</tilted></_>
    <_>
      <rects>
        <_>
          5 1 4 1 -1.</_>
        <_>
          7 1 2 1 2.</_></rects>
      <tilted>0</tilted></_>
    <_>
      <rects>
        <_>
          5 11 2 13 -1.</_>
        <_>
          6 11 1 13 2.</_></rects>
      <tilted>0</tilted></_>
    <_>
      <rects>
        <_>
          5 15 3 14 -1.</_>
        <_>
          5 22 3 7 2.</_></rects>
      <tilted>0</tilted></_>
    <_>
      <rects>
        <_>
          5 15 9 3 -1.</_>
        <_>
          5 16 9 1 3.</_></rects>
      <tilted>0</tilted></_>
    <_>
      <rects>
        <_>
          6 0 6 4 -1.</_>
        <_>
          6 2 6 2 2.</_></rects>
      <tilted>0</tilted></_>
    <_>
      <rects>
        <_>
          6 0 10 18 -1.</_>
        <_>
          6 6 10 6 3.</_></rects>
      <tilted>0</tilted></_>
    <_>
      <rects>
        <_>
          6 0 11 14 -1.</_>
        <_>
          6 7 11 7 2.</_></rects>
      <tilted>0</tilted></_>
    <_>
      <rects>
        <_>
          7 3 6 26 -1.</_>
        <_>
          7 16 6 13 2.</_></rects>
      <tilted>0</tilted></_>
    <_>
      <rects>
        <_>
          7 4 3 6 -1.</_>
        <_>
          7 7 3 3 2.</_></rects>
      <tilted>0</tilted></_>
    <_>
      <rects>
        <_>
          7 5 2 3 -1.</_>
        <_>
          7 6 2 1 3.</_></rects>
      <tilted>0</tilted></_>
    <_>
      <rects>
        <_>
          7 12 2 6 -1.</_>
        <_>
          7 12 1 3 2.</_>
        <_>
          8 15 1 3 2.</_></rects>
      <tilted>0</tilted></_>
    <_>
      <rects>
        <_>
          8 0 1 12 -1.</_>
        <_>
          8 4 1 4 3.</_></rects>
      <tilted>0</tilted></_>
    <_>
      <rects>
        <_>
          8 1 12 20 -1.</_>
        <_>
          12 1 4 20 3.</_></rects>
      <tilted>0</tilted></_>
    <_>
      <rects>
        <_>
          9 1 3 1 -1.</_>
        <_>
          10 1 1 1 3.</_></rects>
      <tilted>0</tilted></_>
    <_>
      <rects>
        <_>
          9 4 4 3 -1.</_>
        <_>
          9 5 4 1 3.</_></rects>
      <tilted>0</tilted></_>
    <_>
      <rects>
        <_>
          9 20 9 3 -1.</_>
        <_>
          9 21 9 1 3.</_></rects>
      <tilted>0</tilted></_>
    <_>
      <rects>
        <_>
          9 21 8 2 -1.</_>
        <_>
          13 21 4 2 2.</_></rects>
      <tilted>0</tilted></_>
    <_>
      <rects>
        <_>
          10 6 9 17 -1.</_>
        <_>
          13 6 3 17 3.</_></rects>
      <tilted>0</tilted></_>
    <_>
      <rects>
        <_>
          11 0 1 18 -1.</_>
        <_>
          11 6 1 6 3.</_></rects>
      <tilted>0</tilted></_>
    <_>
      <rects>
        <_>
          11 0 2 24 -1.</_>
        <_>
          11 8 2 8 3.</_></rects>
      <tilted>0</tilted></_>
    <_>
      <rects>
        <_>
          11 10 6 14 -1.</_>
        <_>
          11 10 3 7 2.</_>
        <_>
          14 17 3 7 2.</_></rects>
      <tilted>0</tilted></_>
    <_>
      <rects>
        <_>
          11 11 2 6 -1.</_>
        <_>
          11 11 1 3 2.</_>
        <_>
          12 14 1 3 2.</_></rects>
      <tilted>0</tilted></_>
    <_>
      <rects>
        <_>
          11 12 3 3 -1.</_>
        <_>
          12 12 1 3 3.</_></rects>
      <tilted>0</tilted></_>
    <_>
      <rects>
        <_>
          11 13 9 11 -1.</_>
        <_>
          14 13 3 11 3.</_></rects>
      <tilted>0</tilted></_>
    <_>
      <rects>
        <_>
          11 21 2 4 -1.</_>
        <_>
          12 21 1 4 2.</_></rects>
      <tilted>0</tilted></_>
    <_>
      <rects>
        <_>
          12 0 6 1 -1.</_>
        <_>
          14 0 2 1 3.</_></rects>
      <tilted>0</tilted></_>
    <_>
      <rects>
        <_>
          12 0 4 21 -1.</_>
        <_>
          12 7 4 7 3.</_></rects>
      <tilted>0</tilted></_>
    <_>
      <rects>
        <_>
          12 24 1 2 -1.</_>
        <_>
          12 25 1 1 2.</_></rects>
      <tilted>0</tilted></_>
    <_>
      <rects>
        <_>
          13 8 1 6 -1.</_>
        <_>
          13 10 1 2 3.</_></rects>
      <tilted>0</tilted></_>
    <_>
      <rects>
        <_>
          13 11 2 2 -1.</_>
        <_>
          14 11 1 2 2.</_></rects>
      <tilted>0</tilted></_>
    <_>
      <rects>
        <_>
          14 8 4 8 -1.</_>
        <_>
          14 12 4 4 2.</_></rects>
      <tilted>0</tilted></_>
    <_>
      <rects>
        <_>
          16 6 4 7 -1.</_>
        <_>
          18 6 2 7 2.</_></rects>
      <tilted>0</tilted></_>
    <_>
      <rects>
        <_>
          17 0 2 1 -1.</_>
        <_>
          18 0 1 1 2.</_></rects>
      <tilted>0</tilted></_>
    <_>
      <rects>
        <_>
          18 1 1 6 -1.</_>
        <_>
          18 3 1 2 3.</_></rects>
      <tilted>0</tilted></_>
    <_>
      <rects>
        <_>
          18 16 2 14 -1.</_>
        <_>
          19 16 1 14 2.</_></rects>
      <tilted>0</tilted></_>
    <_>
      <rects>
        <_>
          19 2 1 6 -1.</_>
        <_>
          19 5 1 3 2.</_></rects>
      <tilted>0</tilted></_>
    <_>
      <rects>
        <_>
          19 8 1 14 -1.</_>
        <_>
          19 15 1 7 2.</_></rects>
      <tilted>0</tilted></_>
    <_>
      <rects>
        <_>
          19 9 1 9 -1.</_>
        <_>
          19 12 1 3 3.</_></rects>
      <tilted>0</tilted></_>
    <_>
      <rects>
        <_>
          19 9 1 18 -1.</_>
        <_>
          19 15 1 6 3.</_></rects>
      <tilted>0</tilted></_>
    <_>
      <rects>
        <_>
          19 14 1 9 -1.</_>
        <_>
          19 17 1 3 3.</_></rects>
      <tilted>0</tilted></_></features></cascade>
</opencv_storage>
