<?xml version="1.0"?>
<opencv_storage>
<stage4>
  <maxWeakCount>7</maxWeakCount>
  <stageThreshold>-1.4741250276565552e+00</stageThreshold>
  <weakClassifiers>
    <_>
      <internalNodes>
        0 -1 130699 -3.4357797354459763e-02</internalNodes>
      <leafValues>
        2.5000000000000000e-01 -8.4244668483734131e-01</leafValues></_>
    <_>
      <internalNodes>
        0 -1 169902 1.0842781513929367e-02</internalNodes>
      <leafValues>
        -5.6314051151275635e-01 1.1982360482215881e-01</leafValues></_>
    <_>
      <internalNodes>
        0 -1 108167 2.3539848625659943e-03</internalNodes>
      <leafValues>
        -2.5525146722793579e-01 4.3547463417053223e-01</leafValues></_>
    <_>
      <internalNodes>
        0 -1 76667 -4.9558457249077037e-05</internalNodes>
      <leafValues>
        -5.2913141250610352e-01 2.2503820061683655e-01</leafValues></_>
    <_>
      <internalNodes>
        0 -1 153827 -1.0568075231276453e-04</internalNodes>
      <leafValues>
        -5.0574904680252075e-01 1.8936093151569366e-01</leafValues></_>
    <_>
      <internalNodes>
        0 -1 3260 9.4844847917556763e-03</internalNodes>
      <leafValues>
        1.1815503239631653e-01 -1.</leafValues></_>
    <_>
      <internalNodes>
        0 -1 162297 -5.5368631146848202e-03</internalNodes>
      <leafValues>
        3.7463080883026123e-01 -2.7463498711585999e-01</leafValues></_></weakClassifiers></stage4>
</opencv_storage>
