<?xml version="1.0"?>
<opencv_storage>
<stage5>
  <maxWeakCount>11</maxWeakCount>
  <stageThreshold>-1.6728992462158203e+00</stageThreshold>
  <weakClassifiers>
    <_>
      <internalNodes>
        0 -1 89860 -4.0458187460899353e-02</internalNodes>
      <leafValues>
        5.0000000000000000e-01 -8.4118187427520752e-01</leafValues></_>
    <_>
      <internalNodes>
        0 -1 8091 -3.9080143906176090e-03</internalNodes>
      <leafValues>
        1.8139421939849854e-02 -5.4363405704498291e-01</leafValues></_>
    <_>
      <internalNodes>
        0 -1 17192 -2.4559960002079606e-04</internalNodes>
      <leafValues>
        -5.7392686605453491e-01 1.6584208607673645e-01</leafValues></_>
    <_>
      <internalNodes>
        0 -1 70129 -3.0078557319939137e-03</internalNodes>
      <leafValues>
        3.0788391828536987e-01 -3.0564588308334351e-01</leafValues></_>
    <_>
      <internalNodes>
        0 -1 146782 9.2798027253593318e-06</internalNodes>
      <leafValues>
        2.6135283708572388e-01 -3.9668008685112000e-01</leafValues></_>
    <_>
      <internalNodes>
        0 -1 62905 2.6447270065546036e-03</internalNodes>
      <leafValues>
        1.1573270708322525e-01 -7.9094737768173218e-01</leafValues></_>
    <_>
      <internalNodes>
        0 -1 84318 2.0499906968325377e-03</internalNodes>
      <leafValues>
        -2.6617908477783203e-01 3.5957884788513184e-01</leafValues></_>
    <_>
      <internalNodes>
        0 -1 16926 -6.6136897657997906e-05</internalNodes>
      <leafValues>
        -4.4575977325439453e-01 2.4098140001296997e-01</leafValues></_>
    <_>
      <internalNodes>
        0 -1 5295 -5.0766917411237955e-05</internalNodes>
      <leafValues>
        -4.6088269352912903e-01 2.2908908128738403e-01</leafValues></_>
    <_>
      <internalNodes>
        0 -1 86316 7.8182099387049675e-03</internalNodes>
      <leafValues>
        -3.0717763304710388e-01 3.5451242327690125e-01</leafValues></_>
    <_>
      <internalNodes>
        0 -1 144278 2.7505164965987206e-02</internalNodes>
      <leafValues>
        -2.1903219819068909e-01 5.0747019052505493e-01</leafValues></_></weakClassifiers></stage5>
</opencv_storage>
