<?xml version="1.0"?>
<opencv_storage>
<stage3>
  <maxWeakCount>7</maxWeakCount>
  <stageThreshold>-1.9349926710128784e-01</stageThreshold>
  <weakClassifiers>
    <_>
      <internalNodes>
        0 -1 9439 -9.1105757746845484e-05</internalNodes>
      <leafValues>
        -2.0873123407363892e-01 5.2936208248138428e-01</leafValues></_>
    <_>
      <internalNodes>
        0 -1 107370 -1.6668304800987244e-02</internalNodes>
      <leafValues>
        5.5216711759567261e-01 -1.8608666956424713e-01</leafValues></_>
    <_>
      <internalNodes>
        0 -1 9439 7.6988093496765941e-05</internalNodes>
      <leafValues>
        2.3519076406955719e-01 -4.5041480660438538e-01</leafValues></_>
    <_>
      <internalNodes>
        0 -1 103484 -5.3499206900596619e-02</internalNodes>
      <leafValues>
        4.4040369987487793e-01 -1.7703104019165039e-01</leafValues></_>
    <_>
      <internalNodes>
        0 -1 12235 1.2699002400040627e-04</internalNodes>
      <leafValues>
        1.6095244884490967e-01 -3.7079212069511414e-01</leafValues></_>
    <_>
      <internalNodes>
        0 -1 148295 -2.4631741689518094e-04</internalNodes>
      <leafValues>
        -4.0012374520301819e-01 1.3244296610355377e-01</leafValues></_>
    <_>
      <internalNodes>
        0 -1 148295 2.1966351778246462e-04</internalNodes>
      <leafValues>
        1.5192717313766479e-01 -4.0923342108726501e-01</leafValues></_></weakClassifiers></stage3>
</opencv_storage>
